<?xml version="1.0"?>
<opencv_storage>
<cascade>
  <stageType>BOOST</stageType>
  <featureType>HAAR</featureType>
  <height>24</height>
  <width>24</width>
  <stageParams>
    <boostType>GAB</boostType>
    <minHitRate>9.9500000476837158e-001</minHitRate>
    <maxFalseAlarm>5.0000000000000000e-001</maxFalseAlarm>
    <weightTrimRate>9.4999999999999996e-001</weightTrimRate>
    <maxDepth>1</maxDepth>
    <maxWeakCount>100</maxWeakCount></stageParams>
  <featureParams>
    <maxCatCount>0</maxCatCount>
    <featSize>1</featSize>
    <mode>CORE</mode></featureParams>
  <stageNum>10</stageNum>
  <stages>
    <!-- stage 0 -->
    <_>
      <maxWeakCount>6</maxWeakCount>
      <stageThreshold>-8.5608410835266113e-001</stageThreshold>
      <weakClassifiers>
        <_>
          <internalNodes>
            0 -1 9 1.6574010252952576e-002</internalNodes>
          <leafValues>
            -6.7584097385406494e-001 2.8767123818397522e-001</leafValues></_>
        <_>
          <internalNodes>
            0 -1 47 -1.2143380939960480e-002</internalNodes>
          <leafValues>
            5.7604163885116577e-001 -3.7405481934547424e-001</leafValues></_>
        <_>
          <internalNodes>
            0 -1 36 -1.6320815309882164e-002</internalNodes>
          <leafValues>
            6.3068562746047974e-001 -2.8937384486198425e-001</leafValues></_>
        <_>
          <internalNodes>
            0 -1 0 -2.0001822710037231e-001</internalNodes>
          <leafValues>
            -8.1478434801101685e-001 2.1454663574695587e-001</leafValues></_>
        <_>
          <internalNodes>
            0 -1 11 9.0777911245822906e-003</internalNodes>
          <leafValues>
            -2.7448442578315735e-001 7.0432132482528687e-001</leafValues></_>
        <_>
          <internalNodes>
            0 -1 26 -3.7018908187747002e-003</internalNodes>
          <leafValues>
            5.9364849328994751e-001 -3.2314705848693848e-001</leafValues></_></weakClassifiers></_>
    <!-- stage 1 -->
    <_>
      <maxWeakCount>5</maxWeakCount>
      <stageThreshold>-8.6505323648452759e-001</stageThreshold>
      <weakClassifiers>
        <_>
          <internalNodes>
            0 -1 53 -2.7543403208255768e-002</internalNodes>
          <leafValues>
            5.8823531866073608e-001 -6.0109287500381470e-001</leafValues></_>
        <_>
          <internalNodes>
            0 -1 15 4.4553957879543304e-002</internalNodes>
          <leafValues>
            -3.3292070031166077e-001 4.9012356996536255e-001</leafValues></_>
        <_>
          <internalNodes>
            0 -1 27 -5.7458393275737762e-003</internalNodes>
          <leafValues>
            6.0021173954010010e-001 -2.7720904350280762e-001</leafValues></_>
        <_>
          <internalNodes>
            0 -1 29 -1.2695423327386379e-002</internalNodes>
          <leafValues>
            5.8826506137847900e-001 -2.7521741390228271e-001</leafValues></_>
        <_>
          <internalNodes>
            0 -1 39 -2.5818049907684326e-002</internalNodes>
          <leafValues>
            7.3627281188964844e-001 -2.0165745913982391e-001</leafValues></_></weakClassifiers></_>
    <!-- stage 2 -->
    <_>
      <maxWeakCount>8</maxWeakCount>
      <stageThreshold>-1.4184632301330566e+000</stageThreshold>
      <weakClassifiers>
        <_>
          <internalNodes>
            0 -1 56 -3.0666388571262360e-002</internalNodes>
          <leafValues>
            2.8813558816909790e-001 -6.3636362552642822e-001</leafValues></_>
        <_>
          <internalNodes>
            0 -1 10 2.3867327254265547e-003</internalNodes>
          <leafValues>
            4.2252473533153534e-002 -1.</leafValues></_>
        <_>
          <internalNodes>
            0 -1 6 -2.4042874574661255e-003</internalNodes>
          <leafValues>
            -8.0953502655029297e-001 1.6822162270545959e-001</leafValues></_>
        <_>
          <internalNodes>
            0 -1 30 4.8111467622220516e-003</internalNodes>
          <leafValues>
            -3.0784666538238525e-001 5.5391490459442139e-001</leafValues></_>
        <_>
          <internalNodes>
            0 -1 16 -3.6610670387744904e-002</internalNodes>
          <leafValues>
            5.5676108598709106e-001 -2.0018920302391052e-001</leafValues></_>
        <_>
          <internalNodes>
            0 -1 2 1.3814587146043777e-003</internalNodes>
          <leafValues>
            -3.3065596222877502e-001 5.7536685466766357e-001</leafValues></_>
        <_>
          <internalNodes>
            0 -1 14 -1.6021316405385733e-003</internalNodes>
          <leafValues>
            4.9956408143043518e-001 -3.4743323922157288e-001</leafValues></_>
        <_>
          <internalNodes>
            0 -1 60 -9.6839002799242735e-004</internalNodes>
          <leafValues>
            -7.2613179683685303e-001 1.9355140626430511e-001</leafValues></_></weakClassifiers></_>
    <!-- stage 3 -->
    <_>
      <maxWeakCount>11</maxWeakCount>
      <stageThreshold>-1.3939144611358643e+000</stageThreshold>
      <weakClassifiers>
        <_>
          <internalNodes>
            0 -1 58 -8.6176488548517227e-003</internalNodes>
          <leafValues>
            2.5806450843811035e-001 -6.3905322551727295e-001</leafValues></_>
        <_>
          <internalNodes>
            0 -1 7 -8.3797553088515997e-004</internalNodes>
          <leafValues>
            -8.6288225650787354e-001 8.7426513433456421e-002</leafValues></_>
        <_>
          <internalNodes>
            0 -1 33 -1.8685627728700638e-002</internalNodes>
          <leafValues>
            4.4600990414619446e-001 -3.1161433458328247e-001</leafValues></_>
        <_>
          <internalNodes>
            0 -1 44 1.4456903561949730e-002</internalNodes>
          <leafValues>
            -1.5544663369655609e-001 8.0130356550216675e-001</leafValues></_>
        <_>
          <internalNodes>
            0 -1 62 1.3148339930921793e-003</internalNodes>
          <leafValues>
            1.7071510851383209e-001 -9.0590614080429077e-001</leafValues></_>
        <_>
          <internalNodes>
            0 -1 54 -6.8600387312471867e-003</internalNodes>
          <leafValues>
            7.2019809484481812e-001 -2.1462686359882355e-001</leafValues></_>
        <_>
          <internalNodes>
            0 -1 12 -3.8645215332508087e-002</internalNodes>
          <leafValues>
            6.6648983955383301e-001 -2.0286089181900024e-001</leafValues></_>
        <_>
          <internalNodes>
            0 -1 59 -4.8440946266055107e-003</internalNodes>
          <leafValues>
            6.8603420257568359e-001 -2.0050188899040222e-001</leafValues></_>
        <_>
          <internalNodes>
            0 -1 57 3.9827208966016769e-003</internalNodes>
          <leafValues>
            1.8034683167934418e-001 -9.2657530307769775e-001</leafValues></_>
        <_>
          <internalNodes>
            0 -1 4 1.9441967597231269e-003</internalNodes>
          <leafValues>
            -3.0342701077461243e-001 5.1238197088241577e-001</leafValues></_>
        <_>
          <internalNodes>
            0 -1 55 9.6868886612355709e-004</internalNodes>
          <leafValues>
            1.9512805342674255e-001 -8.0814158916473389e-001</leafValues></_></weakClassifiers></_>
    <!-- stage 4 -->
    <_>
      <maxWeakCount>6</maxWeakCount>
      <stageThreshold>-8.1658470630645752e-001</stageThreshold>
      <weakClassifiers>
        <_>
          <internalNodes>
            0 -1 28 2.1847181022167206e-002</internalNodes>
          <leafValues>
            -5.7559680938720703e-001 7.3913043737411499e-001</leafValues></_>
        <_>
          <internalNodes>
            0 -1 67 -9.4681553309783340e-004</internalNodes>
          <leafValues>
            -1. 5.6892711669206619e-002</leafValues></_>
        <_>
          <internalNodes>
            0 -1 40 3.6657396703958511e-003</internalNodes>
          <leafValues>
            1.0031805187463760e-001 -1.</leafValues></_>
        <_>
          <internalNodes>
            0 -1 43 -4.8643685877323151e-003</internalNodes>
          <leafValues>
            6.4705705642700195e-001 -1.9224777817726135e-001</leafValues></_>
        <_>
          <internalNodes>
            0 -1 48 1.7159180715680122e-003</internalNodes>
          <leafValues>
            1.6311804950237274e-001 -7.2692400217056274e-001</leafValues></_>
        <_>
          <internalNodes>
            0 -1 1 -5.3278272971510887e-003</internalNodes>
          <leafValues>
            5.2097314596176147e-001 -2.7346852421760559e-001</leafValues></_></weakClassifiers></_>
    <!-- stage 5 -->
    <_>
      <maxWeakCount>8</maxWeakCount>
      <stageThreshold>-1.3098534345626831e+000</stageThreshold>
      <weakClassifiers>
        <_>
          <internalNodes>
            0 -1 50 3.8593374192714691e-002</internalNodes>
          <leafValues>
            -5.7754009962081909e-001 6.1538463830947876e-001</leafValues></_>
        <_>
          <internalNodes>
            0 -1 49 -1.3385450467467308e-002</internalNodes>
          <leafValues>
            3.0089086294174194e-001 -4.3273654580116272e-001</leafValues></_>
        <_>
          <internalNodes>
            0 -1 46 2.2091446444392204e-003</internalNodes>
          <leafValues>
            1.7008163034915924e-001 -9.2531466484069824e-001</leafValues></_>
        <_>
          <internalNodes>
            0 -1 64 -2.7342033572494984e-003</internalNodes>
          <leafValues>
            5.7232344150543213e-001 -2.2951693832874298e-001</leafValues></_>
        <_>
          <internalNodes>
            0 -1 51 -3.6581322550773621e-002</internalNodes>
          <leafValues>
            7.5384479761123657e-001 -1.7387656867504120e-001</leafValues></_>
        <_>
          <internalNodes>
            0 -1 41 5.9934430755674839e-003</internalNodes>
          <leafValues>
            -1.9884140789508820e-001 5.8454370498657227e-001</leafValues></_>
        <_>
          <internalNodes>
            0 -1 3 -4.0293144411407411e-004</internalNodes>
          <leafValues>
            3.8603559136390686e-001 -3.3500963449478149e-001</leafValues></_>
        <_>
          <internalNodes>
            0 -1 37 -1.0235209017992020e-002</internalNodes>
          <leafValues>
            4.7612607479095459e-001 -2.6604133844375610e-001</leafValues></_></weakClassifiers></_>
    <!-- stage 6 -->
    <_>
      <maxWeakCount>4</maxWeakCount>
      <stageThreshold>-7.0198613405227661e-001</stageThreshold>
      <weakClassifiers>
        <_>
          <internalNodes>
            0 -1 17 -1.2174722552299500e-001</internalNodes>
          <leafValues>
            6.1290323734283447e-001 -5.9349590539932251e-001</leafValues></_>
        <_>
          <internalNodes>
            0 -1 25 2.2467473521828651e-002</internalNodes>
          <leafValues>
            -3.7865716218948364e-001 4.6913275122642517e-001</leafValues></_>
        <_>
          <internalNodes>
            0 -1 18 6.0079589486122131e-002</internalNodes>
          <leafValues>
            -2.0090055465698242e-001 6.3732182979583740e-001</leafValues></_>
        <_>
          <internalNodes>
            0 -1 5 -3.9456076920032501e-002</internalNodes>
          <leafValues>
            4.7106748819351196e-001 -3.4306043386459351e-001</leafValues></_></weakClassifiers></_>
    <!-- stage 7 -->
    <_>
      <maxWeakCount>6</maxWeakCount>
      <stageThreshold>-5.7283377647399902e-001</stageThreshold>
      <weakClassifiers>
        <_>
          <internalNodes>
            0 -1 13 4.2077511548995972e-002</internalNodes>
          <leafValues>
            -5.9452056884765625e-001 4.8571428656578064e-001</leafValues></_>
        <_>
          <internalNodes>
            0 -1 38 2.5849537923932076e-003</internalNodes>
          <leafValues>
            9.1600470244884491e-002 -9.3241178989410400e-001</leafValues></_>
        <_>
          <internalNodes>
            0 -1 19 4.6583181247115135e-003</internalNodes>
          <leafValues>
            1.3442733883857727e-001 -7.9586637020111084e-001</leafValues></_>
        <_>
          <internalNodes>
            0 -1 22 -5.3113970905542374e-002</internalNodes>
          <leafValues>
            7.6282125711441040e-001 -1.9218771159648895e-001</leafValues></_>
        <_>
          <internalNodes>
            0 -1 45 -3.6965679377317429e-002</internalNodes>
          <leafValues>
            8.1667709350585938e-001 -1.3416106998920441e-001</leafValues></_>
        <_>
          <internalNodes>
            0 -1 61 3.5183778963983059e-003</internalNodes>
          <leafValues>
            1.9101104140281677e-001 -1.</leafValues></_></weakClassifiers></_>
    <!-- stage 8 -->
    <_>
      <maxWeakCount>7</maxWeakCount>
      <stageThreshold>-9.1068142652511597e-001</stageThreshold>
      <weakClassifiers>
        <_>
          <internalNodes>
            0 -1 31 8.1326030194759369e-003</internalNodes>
          <leafValues>
            -6.0000002384185791e-001 4.0000000596046448e-001</leafValues></_>
        <_>
          <internalNodes>
            0 -1 32 -2.3742795456200838e-003</internalNodes>
          <leafValues>
            3.5848930478096008e-001 -3.5472986102104187e-001</leafValues></_>
        <_>
          <internalNodes>
            0 -1 65 3.0696820467710495e-003</internalNodes>
          <leafValues>
            -1.8075518310070038e-001 6.7037355899810791e-001</leafValues></_>
        <_>
          <internalNodes>
            0 -1 42 -1.5586940571665764e-003</internalNodes>
          <leafValues>
            -7.3866271972656250e-001 1.8277485668659210e-001</leafValues></_>
        <_>
          <internalNodes>
            0 -1 52 1.0563602671027184e-002</internalNodes>
          <leafValues>
            -1.6696044802665710e-001 7.5498604774475098e-001</leafValues></_>
        <_>
          <internalNodes>
            0 -1 24 2.0174109376966953e-003</internalNodes>
          <leafValues>
            -1.3054792582988739e-001 7.7682107686996460e-001</leafValues></_>
        <_>
          <internalNodes>
            0 -1 23 -4.9051037058234215e-003</internalNodes>
          <leafValues>
            4.0984594821929932e-001 -2.8635382652282715e-001</leafValues></_></weakClassifiers></_>
    <!-- stage 9 -->
    <_>
      <maxWeakCount>7</maxWeakCount>
      <stageThreshold>-1.2425615787506104e+000</stageThreshold>
      <weakClassifiers>
        <_>
          <internalNodes>
            0 -1 21 1.4710974693298340e-001</internalNodes>
          <leafValues>
            -5.7368421554565430e-001 8.9999997615814209e-001</leafValues></_>
        <_>
          <internalNodes>
            0 -1 66 -2.1957345306873322e-003</internalNodes>
          <leafValues>
            -1. 9.0018369257450104e-002</leafValues></_>
        <_>
          <internalNodes>
            0 -1 8 1.4945883303880692e-003</internalNodes>
          <leafValues>
            1.7492032051086426e-001 -7.3106461763381958e-001</leafValues></_>
        <_>
          <internalNodes>
            0 -1 20 1.6550689470022917e-003</internalNodes>
          <leafValues>
            1.8002890050411224e-001 -7.1627020835876465e-001</leafValues></_>
        <_>
          <internalNodes>
            0 -1 34 9.7845122218132019e-003</internalNodes>
          <leafValues>
            -1.5247417986392975e-001 8.3179861307144165e-001</leafValues></_>
        <_>
          <internalNodes>
            0 -1 63 2.0035677589476109e-003</internalNodes>
          <leafValues>
            1.7867586016654968e-001 -8.3517390489578247e-001</leafValues></_>
        <_>
          <internalNodes>
            0 -1 35 -1.2557700276374817e-002</internalNodes>
          <leafValues>
            7.9808592796325684e-001 -2.3406167328357697e-001</leafValues></_></weakClassifiers></_></stages>
  <features>
    <_>
      <rects>
        <_>
          0 6 24 18 -1.</_>
        <_>
          0 15 24 9 2.</_></rects>
      <tilted>0</tilted></_>
    <_>
      <rects>
        <_>
          0 9 4 8 -1.</_>
        <_>
          1 9 2 8 2.</_></rects>
      <tilted>0</tilted></_>
    <_>
      <rects>
        <_>
          0 12 6 1 -1.</_>
        <_>
          3 12 3 1 2.</_></rects>
      <tilted>0</tilted></_>
    <_>
      <rects>
        <_>
          0 18 3 4 -1.</_>
        <_>
          1 18 1 4 3.</_></rects>
      <tilted>0</tilted></_>
    <_>
      <rects>
        <_>
          1 0 4 2 -1.</_>
        <_>
          3 0 2 2 2.</_></rects>
      <tilted>0</tilted></_>
    <_>
      <rects>
        <_>
          1 0 10 24 -1.</_>
        <_>
          1 6 10 12 2.</_></rects>
      <tilted>0</tilted></_>
    <_>
      <rects>
        <_>
          1 2 4 3 -1.</_>
        <_>
          1 3 4 1 3.</_></rects>
      <tilted>0</tilted></_>
    <_>
      <rects>
        <_>
          1 3 1 3 -1.</_>
        <_>
          1 4 1 1 3.</_></rects>
      <tilted>0</tilted></_>
    <_>
      <rects>
        <_>
          1 7 1 4 -1.</_>
        <_>
          1 9 1 2 2.</_></rects>
      <tilted>0</tilted></_>
    <_>
      <rects>
        <_>
          1 20 18 4 -1.</_>
        <_>
          1 22 18 2 2.</_></rects>
      <tilted>0</tilted></_>
    <_>
      <rects>
        <_>
          2 2 3 3 -1.</_>
        <_>
          2 3 3 1 3.</_></rects>
      <tilted>0</tilted></_>
    <_>
      <rects>
        <_>
          3 1 4 10 -1.</_>
        <_>
          3 1 2 5 2.</_>
        <_>
          5 6 2 5 2.</_></rects>
      <tilted>0</tilted></_>
    <_>
      <rects>
        <_>
          3 4 16 12 -1.</_>
        <_>
          3 7 16 6 2.</_></rects>
      <tilted>0</tilted></_>
    <_>
      <rects>
        <_>
          3 8 9 5 -1.</_>
        <_>
          6 8 3 5 3.</_></rects>
      <tilted>0</tilted></_>
    <_>
      <rects>
        <_>
          3 11 4 8 -1.</_>
        <_>
          4 11 2 8 2.</_></rects>
      <tilted>0</tilted></_>
    <_>
      <rects>
        <_>
          3 16 17 8 -1.</_>
        <_>
          3 20 17 4 2.</_></rects>
      <tilted>0</tilted></_>
    <_>
      <rects>
        <_>
          5 6 9 15 -1.</_>
        <_>
          5 11 9 5 3.</_></rects>
      <tilted>0</tilted></_>
    <_>
      <rects>
        <_>
          5 7 16 16 -1.</_>
        <_>
          5 11 16 8 2.</_></rects>
      <tilted>0</tilted></_>
    <_>
      <rects>
        <_>
          6 0 8 21 -1.</_>
        <_>
          6 7 8 7 3.</_></rects>
      <tilted>0</tilted></_>
    <_>
      <rects>
        <_>
          6 0 10 4 -1.</_>
        <_>
          6 1 10 2 2.</_></rects>
      <tilted>0</tilted></_>
    <_>
      <rects>
        <_>
          6 2 5 3 -1.</_>
        <_>
          6 3 5 1 3.</_></rects>
      <tilted>0</tilted></_>
    <_>
      <rects>
        <_>
          6 3 12 12 -1.</_>
        <_>
          10 3 4 12 3.</_></rects>
      <tilted>0</tilted></_>
    <_>
      <rects>
        <_>
          6 6 9 11 -1.</_>
        <_>
          9 6 3 11 3.</_></rects>
      <tilted>0</tilted></_>
    <_>
      <rects>
        <_>
          6 6 13 8 -1.</_>
        <_>
          6 8 13 4 2.</_></rects>
      <tilted>0</tilted></_>
    <_>
      <rects>
        <_>
          6 11 3 1 -1.</_>
        <_>
          7 11 1 1 3.</_></rects>
      <tilted>0</tilted></_>
    <_>
      <rects>
        <_>
          6 11 6 12 -1.</_>
        <_>
          6 15 6 4 3.</_></rects>
      <tilted>0</tilted></_>
    <_>
      <rects>
        <_>
          6 14 4 8 -1.</_>
        <_>
          6 14 2 4 2.</_>
        <_>
          8 18 2 4 2.</_></rects>
      <tilted>0</tilted></_>
    <_>
      <rects>
        <_>
          6 18 6 4 -1.</_>
        <_>
          6 20 6 2 2.</_></rects>
      <tilted>0</tilted></_>
    <_>
      <rects>
        <_>
          7 3 3 13 -1.</_>
        <_>
          8 3 1 13 3.</_></rects>
      <tilted>0</tilted></_>
    <_>
      <rects>
        <_>
          7 3 6 10 -1.</_>
        <_>
          9 3 2 10 3.</_></rects>
      <tilted>0</tilted></_>
    <_>
      <rects>
        <_>
          7 5 2 10 -1.</_>
        <_>
          8 5 1 10 2.</_></rects>
      <tilted>0</tilted></_>
    <_>
      <rects>
        <_>
          7 9 3 4 -1.</_>
        <_>
          8 9 1 4 3.</_></rects>
      <tilted>0</tilted></_>
    <_>
      <rects>
        <_>
          7 11 3 13 -1.</_>
        <_>
          8 11 1 13 3.</_></rects>
      <tilted>0</tilted></_>
    <_>
      <rects>
        <_>
          7 11 13 12 -1.</_>
        <_>
          7 14 13 6 2.</_></rects>
      <tilted>0</tilted></_>
    <_>
      <rects>
        <_>
          8 1 4 12 -1.</_>
        <_>
          9 1 2 12 2.</_></rects>
      <tilted>0</tilted></_>
    <_>
      <rects>
        <_>
          8 1 3 15 -1.</_>
        <_>
          9 1 1 15 3.</_></rects>
      <tilted>0</tilted></_>
    <_>
      <rects>
        <_>
          8 7 6 12 -1.</_>
        <_>
          8 7 3 6 2.</_>
        <_>
          11 13 3 6 2.</_></rects>
      <tilted>0</tilted></_>
    <_>
      <rects>
        <_>
          8 9 6 8 -1.</_>
        <_>
          10 9 2 8 3.</_></rects>
      <tilted>0</tilted></_>
    <_>
      <rects>
        <_>
          8 15 4 3 -1.</_>
        <_>
          8 16 4 1 3.</_></rects>
      <tilted>0</tilted></_>
    <_>
      <rects>
        <_>
          9 1 10 10 -1.</_>
        <_>
          9 1 5 5 2.</_>
        <_>
          14 6 5 5 2.</_></rects>
      <tilted>0</tilted></_>
    <_>
      <rects>
        <_>
          9 6 4 3 -1.</_>
        <_>
          9 7 4 1 3.</_></rects>
      <tilted>0</tilted></_>
    <_>
      <rects>
        <_>
          9 10 3 10 -1.</_>
        <_>
          10 10 1 10 3.</_></rects>
      <tilted>0</tilted></_>
    <_>
      <rects>
        <_>
          10 0 3 2 -1.</_>
        <_>
          10 1 3 1 2.</_></rects>
      <tilted>0</tilted></_>
    <_>
      <rects>
        <_>
          10 1 3 6 -1.</_>
        <_>
          11 1 1 6 3.</_></rects>
      <tilted>0</tilted></_>
    <_>
      <rects>
        <_>
          11 1 3 17 -1.</_>
        <_>
          12 1 1 17 3.</_></rects>
      <tilted>0</tilted></_>
    <_>
      <rects>
        <_>
          11 2 6 17 -1.</_>
        <_>
          13 2 2 17 3.</_></rects>
      <tilted>0</tilted></_>
    <_>
      <rects>
        <_>
          11 5 2 3 -1.</_>
        <_>
          11 6 2 1 3.</_></rects>
      <tilted>0</tilted></_>
    <_>
      <rects>
        <_>
          11 6 8 6 -1.</_>
        <_>
          13 6 4 6 2.</_></rects>
      <tilted>0</tilted></_>
    <_>
      <rects>
        <_>
          11 7 3 3 -1.</_>
        <_>
          11 8 3 1 3.</_></rects>
      <tilted>0</tilted></_>
    <_>
      <rects>
        <_>
          12 0 6 14 -1.</_>
        <_>
          14 0 2 14 3.</_></rects>
      <tilted>0</tilted></_>
    <_>
      <rects>
        <_>
          12 4 6 14 -1.</_>
        <_>
          14 4 2 14 3.</_></rects>
      <tilted>0</tilted></_>
    <_>
      <rects>
        <_>
          14 1 9 11 -1.</_>
        <_>
          17 1 3 11 3.</_></rects>
      <tilted>0</tilted></_>
    <_>
      <rects>
        <_>
          14 5 3 15 -1.</_>
        <_>
          15 5 1 15 3.</_></rects>
      <tilted>0</tilted></_>
    <_>
      <rects>
        <_>
          14 5 10 8 -1.</_>
        <_>
          14 5 5 4 2.</_>
        <_>
          19 9 5 4 2.</_></rects>
      <tilted>0</tilted></_>
    <_>
      <rects>
        <_>
          14 8 6 4 -1.</_>
        <_>
          14 8 3 2 2.</_>
        <_>
          17 10 3 2 2.</_></rects>
      <tilted>0</tilted></_>
    <_>
      <rects>
        <_>
          15 14 1 3 -1.</_>
        <_>
          15 15 1 1 3.</_></rects>
      <tilted>0</tilted></_>
    <_>
      <rects>
        <_>
          16 0 6 16 -1.</_>
        <_>
          16 0 3 8 2.</_>
        <_>
          19 8 3 8 2.</_></rects>
      <tilted>0</tilted></_>
    <_>
      <rects>
        <_>
          17 17 6 4 -1.</_>
        <_>
          17 18 6 2 2.</_></rects>
      <tilted>0</tilted></_>
    <_>
      <rects>
        <_>
          18 6 6 4 -1.</_>
        <_>
          20 6 2 4 3.</_></rects>
      <tilted>0</tilted></_>
    <_>
      <rects>
        <_>
          19 8 4 3 -1.</_>
        <_>
          21 8 2 3 2.</_></rects>
      <tilted>0</tilted></_>
    <_>
      <rects>
        <_>
          19 15 2 3 -1.</_>
        <_>
          19 16 2 1 3.</_></rects>
      <tilted>0</tilted></_>
    <_>
      <rects>
        <_>
          20 8 4 3 -1.</_>
        <_>
          20 9 4 1 3.</_></rects>
      <tilted>0</tilted></_>
    <_>
      <rects>
        <_>
          20 15 1 3 -1.</_>
        <_>
          20 16 1 1 3.</_></rects>
      <tilted>0</tilted></_>
    <_>
      <rects>
        <_>
          20 15 4 3 -1.</_>
        <_>
          20 16 4 1 3.</_></rects>
      <tilted>0</tilted></_>
    <_>
      <rects>
        <_>
          21 3 3 5 -1.</_>
        <_>
          22 3 1 5 3.</_></rects>
      <tilted>0</tilted></_>
    <_>
      <rects>
        <_>
          22 6 2 3 -1.</_>
        <_>
          23 6 1 3 2.</_></rects>
      <tilted>0</tilted></_>
    <_>
      <rects>
        <_>
          22 14 2 4 -1.</_>
        <_>
          22 15 2 2 2.</_></rects>
      <tilted>0</tilted></_>
    <_>
      <rects>
        <_>
          23 16 1 3 -1.</_>
        <_>
          23 17 1 1 3.</_></rects>
      <tilted>0</tilted></_></features></cascade>
</opencv_storage>
